net { }

node BirthAsphyxia { 
 states = ( "s0" "s1" ); 
 parents = ( "Disease" );
}

node HypDistrib { 
 states = ( "s0" "s1" ); 
 parents = ( "DuctFlow" "CardiacMixing" );
}

node HypoxiaInO2 { 
 states = ( "s0" "s1" "s2" ); 
 parents = ( "CardiacMixing" "LungParench" );
}

node CO2 { 
 states = ( "s0" "s1" "s2" ); 
 parents = ( "LungParench" );
}

node ChestXray { 
 states = ( "s0" "s1" "s2" "s3" "s4" ); 
 parents = ( "LungParench" "LungFlow" );
}

node Grunting { 
 states = ( "s0" "s1" ); 
 parents = ( "LungParench" "Sick" );
}

node LVHreport { 
 states = ( "s0" "s1" ); 
 parents = ( "LVH" );
}

node LowerBodyO2 { 
 states = ( "s0" "s1" "s2" ); 
 parents = ( "HypDistrib" "HypoxiaInO2" );
}

node RUQO2 { 
 states = ( "s0" "s1" "s2" ); 
 parents = ( "HypoxiaInO2" );
}

node CO2Report { 
 states = ( "s0" "s1" ); 
 parents = ( "CO2" );
}

node XrayReport { 
 states = ( "s0" "s1" "s2" "s3" "s4" ); 
 parents = ( "ChestXray" );
}

node Disease { 
 states = ( "s0" "s1" "s2" "s3" "s4" "s5" ); 
 parents = ( "LungFlow" );
}

node GruntingReport { 
 states = ( "s0" "s1" ); 
 parents = ( "Grunting" );
}

node Age { 
 states = ( "s0" "s1" "s2" ); 
 parents = ( "Disease" "Sick" );
}

node LVH { 
 states = ( "s0" "s1" ); 
 parents = ( "Disease" );
}

node DuctFlow { 
 states = ( "s0" "s1" "s2" ); 
 parents = ( "Disease" );
}

node CardiacMixing { 
 states = ( "s0" "s1" "s2" "s3" ); 
 parents = ( "Disease" );
}

node LungParench { 
 states = ( "s0" "s1" "s2" ); 
 parents = ( "Disease" );
}

node LungFlow { 
 states = ( "s0" "s1" "s2" ); 
 parents = ( );
}

node Sick { 
 states = ( "s0" "s1" ); 
 parents = ( "Disease" );
}

potential ( BirthAsphyxia | Disease ) { 
 data = 
(( 0.344506 0.655494)
( 0.093459 0.906541)
( 0.098636 0.901364)
( 0.069688 0.930312)
( 0.097265 0.902735)
( 0.090111 0.909889)); 
}

potential ( HypDistrib | DuctFlow CardiacMixing ) { 
 data = 
((( 0.890117 0.109883)
( 0.946897 0.053103)
( 0.952974 0.047026)
( 0.970182 0.029818)
)
(( 0.976283 0.023717)
( 0.940472 0.059528)
( 0.950457 0.049543)
( 0.932318 0.067682)
)
(( 0.074891 0.925109)
( 0.509799 0.490201)
( 0.947088 0.052912)
( 0.469816 0.530184))); 
}

potential ( HypoxiaInO2 | CardiacMixing LungParench ) { 
 data = 
((( 0.94828 0.042942 0.008778)
( 0.167052 0.776751 0.056197)
( 0.702056 0.206188 0.091757)
)
(( 0.089421 0.782518 0.128061)
( 0.082478 0.72558 0.191942)
( 0.064291 0.684336 0.251373)
)
(( 0.101282 0.699221 0.199497)
( 0.04327 0.674324 0.282406)
( 0.095936 0.477142 0.426923)
)
(( 0.020997 0.165886 0.813117)
( 0.141071 0.352091 0.506839)
( 0.02764 0.192714 0.779646))); 
}

potential ( CO2 | LungParench ) { 
 data = 
(( 0.798828 0.102984 0.098189)
( 0.71699 0.031394 0.251616)
( 0.461968 0.050405 0.487627)); 
}

potential ( ChestXray | LungParench LungFlow ) { 
 data = 
((( 0.895773 0.029043 0.037573 0.011981 0.02563)
( 0.157252 0.788345 0.020267 0.018667 0.015469)
( 0.152359 0.014793 0.777411 0.047107 0.00833)
)
(( 0.02977 0.014967 0.155592 0.695888 0.103783)
( 0.08117 0.222956 0.094674 0.445761 0.155439)
( 0.055637 0.015255 0.328211 0.45945 0.141447)
)
(( 0.070164 0.040656 0.073852 0.044344 0.770984)
( 0.060717 0.138366 0.06557 0.070423 0.664923)
( 0.25771 0.285191 0.024122 0.350458 0.082519))); 
}

potential ( Grunting | LungParench Sick ) { 
 data = 
((( 0.217862 0.782138)
( 0.047867 0.952133)
)
(( 0.353818 0.646182)
( 0.206543 0.793457)
)
(( 0.816569 0.183431)
( 0.567146 0.432854))); 
}

potential ( LVHreport | LVH ) { 
 data = 
(( 0.903266 0.096734)
( 0.046277 0.953723)); 
}

potential ( LowerBodyO2 | HypDistrib HypoxiaInO2 ) { 
 data = 
((( 0.113249 0.318712 0.568039)
( 0.306887 0.586044 0.107069)
( 0.502384 0.403354 0.094262)
)
(( 0.438881 0.479477 0.081642)
( 0.490352 0.461803 0.047846)
( 0.607281 0.354819 0.037899))); 
}

potential ( RUQO2 | HypoxiaInO2 ) { 
 data = 
(( 0.088276 0.294987 0.616737)
( 0.306716 0.60066 0.092624)
( 0.506448 0.376882 0.11667)); 
}

potential ( CO2Report | CO2 ) { 
 data = 
(( 0.899329 0.100671)
( 0.911102 0.088898)
( 0.098659 0.901341)); 
}

potential ( XrayReport | ChestXray ) { 
 data = 
(( 0.792999 0.062801 0.064569 0.02302 0.056612)
( 0.088197 0.799459 0.016482 0.024124 0.071738)
( 0.097557 0.01992 0.808597 0.01992 0.054005)
( 0.080131 0.016502 0.106814 0.611741 0.184811)
( 0.088036 0.008061 0.10563 0.10723 0.691043)); 
}

potential ( Disease | LungFlow ) { 
 data = 
(( 0.069589 0.323536 0.218733 0.116952 0.081682 0.189508)
( 0.063643 0.031217 0.489693 0.398983 0.004948 0.011515)
( 0.010847 0.76196 0.051551 0.038831 0.111335 0.025475)); 
}

potential ( GruntingReport | Grunting ) { 
 data = 
(( 0.784681 0.215319)
( 0.105084 0.894916)); 
}

potential ( Age | Disease Sick ) { 
 data = 
((( 0.968199 0.031512 0.000289)
( 0.882443 0.07601 0.041547)
)
(( 0.814569 0.14874 0.036691)
( 0.724109 0.190108 0.085783)
)
(( 0.692193 0.134679 0.173128)
( 0.249396 0.261581 0.489023)
)
(( 0.784774 0.154113 0.061112)
( 0.780078 0.166477 0.053445)
)
(( 0.82518 0.121786 0.053034)
( 0.759045 0.114155 0.1268)
)
(( 0.910346 0.067163 0.022491)
( 0.830631 0.117117 0.052252))); 
}

potential ( LVH | Disease ) { 
 data = 
(( 0.108155 0.891845)
( 0.092206 0.907794)
( 0.116072 0.883928)
( 0.898985 0.101015)
( 0.052517 0.947483)
( 0.058881 0.941119)); 
}

potential ( DuctFlow | Disease ) { 
 data = 
(( 0.124626 0.033402 0.841972)
( 0.095323 0.795563 0.109114)
( 0.78734 0.212622 0.000037)
( 0.999903 0.000048 0.000048)
( 0.33209 0.320903 0.347006)
( 0.183691 0.429625 0.386684)); 
}

potential ( CardiacMixing | Disease ) { 
 data = 
(( 0.443849 0.41897 0.124568 0.012612)
( 0.01946 0.087791 0.089672 0.803077)
( 0.018135 0.175729 0.784648 0.021488)
( 0.009608 0.022661 0.95203 0.0157)
( 0.007613 0.029988 0.958515 0.003884)
( 0.413956 0.534971 0.0392 0.011874)); 
}

potential ( LungParench | Disease ) { 
 data = 
(( 0.580742 0.070721 0.348537)
( 0.793055 0.056455 0.150489)
( 0.791364 0.053687 0.15495)
( 0.803239 0.04965 0.147111)
( 0.108349 0.63787 0.253781)
( 0.031447 0.257862 0.710692)); 
}

potential ( LungFlow ) { 
 data = (  0.198427 0.487169 0.314404); 
}

potential ( Sick | Disease ) { 
 data = 
(( 0.398411 0.601589)
( 0.290931 0.709069)
( 0.174416 0.825584)
( 0.29942 0.70058)
( 0.705096 0.294904)
( 0.699089 0.300911)); 
}

